digraph Tree {
node [shape=box, style="filled, rounded", color="black", fontname=helvetica] ;
edge [fontname=helvetica] ;
0 [label="petal width (cm) <= 0.7\ngini = 0.67\nsamples = 120\nvalue = [40, 40, 40]\nclass = setosa", fillcolor="#ffffff"] ;
1 [label="gini = 0.0\nsamples = 40\nvalue = [40, 0, 0]\nclass = setosa", fillcolor="#e58139"] ;
0 -> 1 [labeldistance=2.5, labelangle=45, headlabel="True"] ;
2 [label="petal width (cm) <= 1.7\ngini = 0.5\nsamples = 80\nvalue = [0, 40, 40]\nclass = versicolor", fillcolor="#ffffff"] ;
0 -> 2 [labeldistance=2.5, labelangle=-45, headlabel="False"] ;
3 [label="petal length (cm) <= 5.0\ngini = 0.09\nsamples = 42\nvalue = [0, 40, 2]\nclass = versicolor", fillcolor="#43e687"] ;
2 -> 3 ;
4 [label="gini = 0.0\nsamples = 39\nvalue = [0, 39, 0]\nclass = versicolor", fillcolor="#39e581"] ;
3 -> 4 ;
5 [label="gini = 0.44\nsamples = 3\nvalue = [0, 1, 2]\nclass = virginica", fillcolor="#c09cf2"] ;
3 -> 5 ;
6 [label="gini = 0.0\nsamples = 38\nvalue = [0, 0, 38]\nclass = virginica", fillcolor="#8139e5"] ;
2 -> 6 ;
}